{
    "learner": {
        "attributes": {
            "best_iteration": "52",
            "best_ntree_limit": "53",
            "scikit_learn": "{\"use_label_encoder\": null, \"n_estimators\": 53, \"objective\": \"multi:softprob\", \"max_depth\": 18, \"max_leaves\": null, \"max_bin\": null, \"grow_policy\": null, \"learning_rate\": 0.1246644391479061, \"verbosity\": null, \"booster\": null, \"tree_method\": null, \"gamma\": 0.0002311975019725, \"min_child_weight\": 1, \"max_delta_step\": 0, \"subsample\": 0.0140138352905889, \"sampling_method\": null, \"colsample_bytree\": 0.8965864738830546, \"colsample_bylevel\": 0.4610343386018751, \"colsample_bynode\": null, \"reg_alpha\": 0.635629772131101, \"reg_lambda\": 0.0603496533693932, \"scale_pos_weight\": null, \"base_score\": null, \"missing\": NaN, \"num_parallel_tree\": null, \"random_state\": null, \"n_jobs\": null, \"monotone_constraints\": null, \"interaction_constraints\": null, \"importance_type\": null, \"gpu_id\": null, \"validate_parameters\": null, \"predictor\": null, \"enable_categorical\": false, \"feature_types\": null, \"max_cat_to_onehot\": null, \"max_cat_threshold\": null, \"eval_metric\": null, \"early_stopping_rounds\": null, \"callbacks\": null, \"classes_\": [0, 1, 2], \"n_classes_\": 3, \"_estimator_type\": \"classifier\"}"
        },
        "feature_names": [],
        "feature_types": [],
        "gradient_booster": {
            "model": {
                "gbtree_model_param": {
                    "num_parallel_tree": "1",
                    "num_trees": "159",
                    "size_leaf_vector": "0"
                },
                "tree_info": [
                    0,
                    1,
                    2,
                    0,
                    1,
                    2,
                    0,
                    1,
                    2,
                    0,
                    1,
                    2,
                    0,
                    1,
                    2,
                    0,
                    1,
                    2,
                    0,
                    1,
                    2,
                    0,
                    1,
                    2,
                    0,
                    1,
                    2,
                    0,
                    1,
                    2,
                    0,
                    1,
                    2,
                    0,
                    1,
                    2,
                    0,
                    1,
                    2,
                    0,
                    1,
                    2,
                    0,
                    1,
                    2,
                    0,
                    1,
                    2,
                    0,
                    1,
                    2,
                    0,
                    1,
                    2,
                    0,
                    1,
                    2,
                    0,
                    1,
                    2,
                    0,
                    1,
                    2,
                    0,
                    1,
                    2,
                    0,
                    1,
                    2,
                    0,
                    1,
                    2,
                    0,
                    1,
                    2,
                    0,
                    1,
                    2,
                    0,
                    1,
                    2,
                    0,
                    1,
                    2,
                    0,
                    1,
                    2,
                    0,
                    1,
                    2,
                    0,
                    1,
                    2,
                    0,
                    1,
                    2,
                    0,
                    1,
                    2,
                    0,
                    1,
                    2,
                    0,
                    1,
                    2,
                    0,
                    1,
                    2,
                    0,
                    1,
                    2,
                    0,
                    1,
                    2,
                    0,
                    1,
                    2,
                    0,
                    1,
                    2,
                    0,
                    1,
                    2,
                    0,
                    1,
                    2,
                    0,
                    1,
                    2,
                    0,
                    1,
                    2,
                    0,
                    1,
                    2,
                    0,
                    1,
                    2,
                    0,
                    1,
                    2,
                    0,
                    1,
                    2,
                    0,
                    1,
                    2,
                    0,
                    1,
                    2,
                    0,
                    1,
                    2,
                    0,
                    1,
                    2,
                    0,
                    1,
                    2
                ],
                "trees": [
                    {
                        "base_weights": [
                            -0.040619113,
                            1.4279882,
                            -0.62865096,
                            -0.0,
                            -0.7206946,
                            -0.40497068,
                            0.88150626
                        ],
                        "categories": [],
                        "categories_nodes": [],
                        "categories_segments": [],
                        "categories_sizes": [],
                        "default_left": [
                            1,
                            0,
                            1,
                            1,
                            0,
                            0,
                            0
                        ],
                        "id": 0,
                        "left_children": [
                            1,
                            -1,
                            3,
                            5,
                            -1,
                            -1,
                            -1
                        ],
                        "loss_changes": [
                            30.880999,
                            0.0,
                            1.6894703,
                            1.2359593,
                            0.0,
                            0.0,
                            0.0
                        ],
                        "parents": [
                            2147483647,
                            0,
                            0,
                            2,
                            2,
                            3,
                            3
                        ],
                        "right_children": [
                            2,
                            -1,
                            4,
                            6,
                            -1,
                            -1,
                            -1
                        ],
                        "split_conditions": [
                            -0.14232099,
                            0.17801934,
                            -0.8262749,
                            -0.35375553,
                            -0.08984499,
                            -0.050485443,
                            0.10989249
                        ],
                        "split_indices": [
                            4,
                            0,
                            0,
                            2,
                            0,
                            0,
                            0
                        ],
                        "split_type": [
                            0,
                            0,
                            0,
                            0,
                            0,
                            0,
                            0
                        ],
                        "sum_hessian": [
                            36.22421,
                            10.023473,
                            26.200737,
                            3.0268016,
                            23.173935,
                            1.9130822,
                            1.1137192
                        ],
                        "tree_param": {
                            "num_deleted": "0",
                            "num_feature": "8",
                            "num_nodes": "7",
                            "size_leaf_vector": "0"
                        }
                    },
                    {
                        "base_weights": [
                            -0.0,
                            0.5098179,
                            -0.7065367,
                            -0.68040013,
                            1.4445832
                        ],
                        "categories": [],
                        "categories_nodes": [],
                        "categories_segments": [],
                        "categories_sizes": [],
                        "default_left": [
                            1,
                            1,
                            0,
                            0,
                            0
                        ],
                        "id": 1,
                        "left_children": [
                            1,
                            3,
                            -1,
                            -1,
                            -1
                        ],
                        "loss_changes": [
                            13.753145,
                            25.940775,
                            0.0,
                            0.0,
                            0.0
                        ],
                        "parents": [
                            2147483647,
                            0,
                            0,
                            1,
                            1
                        ],
                        "right_children": [
                            2,
                            4,
                            -1,
                            -1,
                            -1
                        ],
                        "split_conditions": [
                            -0.6851574,
                            1.1227151,
                            -0.088080004,
                            -0.0848217,
                            0.18008815
                        ],
                        "split_indices": [
                            6,
                            4,
                            0,
                            0,
                            0
                        ],
                        "split_type": [
                            0,
                            0,
                            0,
                            0,
                            0
                        ],
                        "sum_hessian": [
                            38.371277,
                            22.765734,
                            15.605541,
                            9.7225895,
                            13.043145
                        ],
                        "tree_param": {
                            "num_deleted": "0",
                            "num_feature": "8",
                            "num_nodes": "5",
                            "size_leaf_vector": "0"
                        }
                    },
                    {
                        "base_weights": [
                            0.020916939,
                            0.4191898,
                            -0.6062531,
                            1.4162377,
                            0.031825673,
                            -0.27224544,
                            0.5981314,
                            0.19758728,
                            -0.6727082,
                            0.7851793,
                            -0.17005791,
                            1.2521635,
                            -0.54498225,
                            -0.45237982,
                            1.3747923
                        ],
                        "categories": [],
                        "categories_nodes": [],
                        "categories_segments": [],
                        "categories_sizes": [],
                        "default_left": [
                            1,
                            1,
                            0,
                            0,
                            1,
                            1,
                            1,
                            1,
                            0,
                            1,
                            0,
                            0,
                            0,
                            0,
                            0
                        ],
                        "id": 2,
                        "left_children": [
                            1,
                            3,
                            -1,
                            -1,
                            5,
                            7,
                            9,
                            11,
                            -1,
                            13,
                            -1,
                            -1,
                            -1,
                            -1,
                            -1
                        ],
                        "loss_changes": [
                            12.954609,
                            11.678856,
                            0.0,
                            0.0,
                            4.353177,
                            3.120948,
                            1.7124658,
                            5.338649,
                            0.0,
                            6.481021,
                            0.0,
                            0.0,
                            0.0,
                            0.0,
                            0.0
                        ],
                        "parents": [
                            2147483647,
                            0,
                            0,
                            1,
                            1,
                            4,
                            4,
                            5,
                            5,
                            6,
                            6,
                            7,
                            7,
                            9,
                            9
                        ],
                        "right_children": [
                            2,
                            4,
                            -1,
                            -1,
                            6,
                            8,
                            10,
                            12,
                            -1,
                            14,
                            -1,
                            -1,
                            -1,
                            -1,
                            -1
                        ],
                        "split_conditions": [
                            0.14543693,
                            -0.4577187,
                            -0.075578205,
                            0.17655449,
                            0.3038313,
                            -0.55727625,
                            1.6823704,
                            3.0465684,
                            -0.0838628,
                            -0.25171375,
                            -0.021200174,
                            0.15610027,
                            -0.06793991,
                            -0.056395676,
                            0.17138772
                        ],
                        "split_indices": [
                            7,
                            0,
                            0,
                            0,
                            6,
                            6,
                            2,
                            4,
                            0,
                            4,
                            0,
                            0,
                            0,
                            0,
                            0
                        ],
                        "split_type": [
                            0,
                            0,
                            0,
                            0,
                            0,
                            0,
                            0,
                            0,
                            0,
                            0,
                            0,
                            0,
                            0,
                            0,
                            0
                        ],
                        "sum_hessian": [
                            52.21735,
                            32.568695,
                            19.648653,
                            8.6088705,
                            23.959826,
                            14.87942,
                            9.080404,
                            6.1304097,
                            8.749011,
                            7.9666853,
                            1.1137192,
                            2.8696234,
                            3.2607863,
                            2.2274384,
                            5.739247
                        ],
                        "tree_param": {
                            "num_deleted": "0",
                            "num_feature": "8",
                            "num_nodes": "15",
                            "size_leaf_vector": "0"
                        }
                    },
                    {
                        "base_weights": [
                            -0.13275869,
                            1.2313441,
                            -0.37286094,
                            -0.5467251,
                            0.07789447,
                            -0.0,
                            -0.6062968,
                            0.59103906,
                            -0.588431,
                            0.7015772,
                            -0.48845756,
                            -0.0,
                            1.0763057,
                            0.7927621,
                            -0.43927374
                        ],
                        "categories": [],
                        "categories_nodes": [],
                        "categories_segments": [],
                        "categories_sizes": [],
                        "default_left": [
                            1,
                            0,
                            1,
                            1,
                            1,
                            1,
                            0,
                            1,
                            0,
                            0,
                            0,
                            1,
                            0,
                            0,
                            0
                        ],
                        "id": 3,
                        "left_children": [
                            1,
                            -1,
                            3,
                            5,
                            7,
                            9,
                            -1,
                            11,
                            -1,
                            -1,
                            -1,
                            13,
                            -1,
                            -1,
                            -1
                        ],
                        "loss_changes": [
                            15.834009,
                            0.0,
                            3.6623502,
                            0.73719597,
                            3.7753758,
                            1.2949793,
                            0.0,
                            1.8608434,
                            0.0,
                            0.0,
                            0.0,
                            1.1556587,
                            0.0,
                            0.0,
                            0.0
                        ],
                        "parents": [
                            2147483647,
                            0,
                            0,
                            2,
                            2,
                            3,
                            3,
                            4,
                            4,
                            5,
                            5,
                            7,
                            7,
                            11,
                            11
                        ],
                        "right_children": [
                            2,
                            -1,
                            4,
                            6,
                            8,
                            10,
                            -1,
                            12,
                            -1,
                            -1,
                            -1,
                            14,
                            -1,
                            -1,
                            -1
                        ],
                        "split_conditions": [
                            -0.86418927,
                            0.15350482,
                            0.030095274,
                            -1.1520238,
                            0.67447114,
                            0.4064819,
                            -0.07558365,
                            -0.6483512,
                            -0.07335642,
                            0.087461725,
                            -0.06089329,
                            -0.14205351,
                            0.13417706,
                            0.09882925,
                            -0.054761816
                        ],
                        "split_indices": [
                            1,
                            0,
                            7,
                            7,
                            1,
                            0,
                            0,
                            0,
                            0,
                            0,
                            0,
                            4,
                            0,
                            0,
                            0
                        ],
                        "split_type": [
                            0,
                            0,
                            0,
                            0,
                            0,
                            0,
                            0,
                            0,
                            0,
                            0,
                            0,
                            0,
                            0,
                            0,
                            0
                        ],
                        "sum_hessian": [
                            49.86567,
                            7.029905,
                            42.835766,
                            31.920696,
                            10.915069,
                            3.9703991,
                            27.950298,
                            6.7090826,
                            4.2059865,
                            1.1969695,
                            2.7734296,
                            3.1217582,
                            3.5873241,
                            1.1565895,
                            1.9651687
                        ],
                        "tree_param": {
                            "num_deleted": "0",
                            "num_feature": "8",
                            "num_nodes": "15",
                            "size_leaf_vector": "0"
                        }
                    },
                    {
                        "base_weights": [
                            -0.0,
                            -0.68289053,
                            0.56950206,
                            -0.6075479,
                            1.0688568,
                            -0.40168956,
                            1.3407154
                        ],
                        "categories": [],
                        "categories_nodes": [],
                        "categories_segments": [],
                        "categories_sizes": [],
                        "default_left": [
                            1,
                            0,
                            1,
                            0,
                            1,
                            0,
                            0
                        ],
                        "id": 4,
                        "left_children": [
                            1,
                            -1,
                            3,
                            -1,
                            5,
                            -1,
                            -1
                        ],
                        "loss_changes": [
                            15.490906,
                            0.0,
                            13.333987,
                            0.0,
                            6.9988136,
                            0.0,
                            0.0
                        ],
                        "parents": [
                            2147483647,
                            0,
                            0,
                            2,
                            2,
                            4,
                            4
                        ],
                        "right_children": [
                            2,
                            -1,
                            4,
                            -1,
                            6,
                            -1,
                            -1
                        ],
                        "split_conditions": [
                            0.035052452,
                            -0.08513217,
                            -0.07645373,
                            -0.075739615,
                            -0.41372824,
                            -0.050076403,
                            0.16713953
                        ],
                        "split_indices": [
                            2,
                            0,
                            0,
                            0,
                            4,
                            0,
                            0
                        ],
                        "split_type": [
                            0,
                            0,
                            0,
                            0,
                            0,
                            0,
                            0
                        ],
                        "sum_hessian": [
                            39.83334,
                            17.773342,
                            22.059998,
                            6.188008,
                            15.871989,
                            2.1071281,
                            13.764861
                        ],
                        "tree_param": {
                            "num_deleted": "0",
                            "num_feature": "8",
                            "num_nodes": "7",
                            "size_leaf_vector": "0"
                        }
                    },
                    {
                        "base_weights": [
                            0.070219055,
                            0.56270146,
                            -0.7335575,
                            1.173366,
                            -0.16134699,
                            -0.29688004,
                            0.61583334,
                            0.34431255,
                            -0.64828074,
                            1.0275637,
                            -0.2788339
                        ],
                        "categories": [],
                        "categories_nodes": [],
                        "categories_segments": [],
                        "categories_sizes": [],
                        "default_left": [
                            1,
                            1,
                            0,
                            0,
                            1,
                            1,
                            0,
                            1,
                            0,
                            0,
                            0
                        ],
                        "id": 5,
                        "left_children": [
                            1,
                            3,
                            -1,
                            -1,
                            5,
                            7,
                            -1,
                            9,
                            -1,
                            -1,
                            -1
                        ],
                        "loss_changes": [
                            16.75063,
                            12.546197,
                            0.0,
                            0.0,
                            1.0598522,
                            2.652384,
                            0.0,
                            1.8734561,
                            0.0,
                            0.0,
                            0.0
                        ],
                        "parents": [
                            2147483647,
                            0,
                            0,
                            1,
                            1,
                            4,
                            4,
                            5,
                            5,
                            7,
                            7
                        ],
                        "right_children": [
                            2,
                            4,
                            -1,
                            -1,
                            6,
                            8,
                            -1,
                            10,
                            -1,
                            -1,
                            -1
                        ],
                        "split_conditions": [
                            0.6326556,
                            -0.16109277,
                            -0.09144854,
                            0.14627701,
                            1.9074374,
                            -1.0280895,
                            0.07677252,
                            0.84769785,
                            -0.08081756,
                            0.12810065,
                            -0.034760673
                        ],
                        "split_indices": [
                            5,
                            1,
                            0,
                            0,
                            1,
                            5,
                            0,
                            1,
                            0,
                            0,
                            0
                        ],
                        "split_type": [
                            0,
                            0,
                            0,
                            0,
                            0,
                            0,
                            0,
                            0,
                            0,
                            0,
                            0
                        ],
                        "sum_hessian": [
                            42.467117,
                            26.83434,
                            15.632778,
                            15.012873,
                            11.821466,
                            10.794217,
                            1.0272489,
                            3.1814575,
                            7.6127596,
                            1.9854118,
                            1.1960456
                        ],
                        "tree_param": {
                            "num_deleted": "0",
                            "num_feature": "8",
                            "num_nodes": "11",
                            "size_leaf_vector": "0"
                        }
                    },
                    {
                        "base_weights": [
                            -0.14912085,
                            1.1761074,
                            -0.5820555,
                            0.762724,
                            -0.7128823
                        ],
                        "categories": [],
                        "categories_nodes": [],
                        "categories_segments": [],
                        "categories_sizes": [],
                        "default_left": [
                            1,
                            0,
                            1,
                            0,
                            0
                        ],
                        "id": 6,
                        "left_children": [
                            1,
                            -1,
                            3,
                            -1,
                            -1
                        ],
                        "loss_changes": [
                            28.645885,
                            0.0,
                            6.7706394,
                            0.0,
                            0.0
                        ],
                        "parents": [
                            2147483647,
                            0,
                            0,
                            2,
                            2
                        ],
                        "right_children": [
                            2,
                            -1,
                            4,
                            -1,
                            -1
                        ],
                        "split_conditions": [
                            -0.28017497,
                            0.14661877,
                            -1.2520807,
                            0.095084555,
                            -0.08887107
                        ],
                        "split_indices": [
                            4,
                            0,
                            5,
                            0,
                            0
                        ],
                        "split_type": [
                            0,
                            0,
                            0,
                            0,
                            0
                        ],
                        "sum_hessian": [
                            50.454357,
                            12.036974,
                            38.41738,
                            2.9494696,
                            35.467915
                        ],
                        "tree_param": {
                            "num_deleted": "0",
                            "num_feature": "8",
                            "num_nodes": "5",
                            "size_leaf_vector": "0"
                        }
                    },
                    {
                        "base_weights": [
                            0.07412797,
                            0.6025578,
                            -0.6752798,
                            -0.5587067,
                            0.8738394,
                            0.30095965,
                            1.0773863,
                            1.588878,
                            -0.5500995
                        ],
                        "categories": [],
                        "categories_nodes": [],
                        "categories_segments": [],
                        "categories_sizes": [],
                        "default_left": [
                            1,
                            1,
                            0,
                            0,
                            1,
                            1,
                            0,
                            0,
                            0
                        ],
                        "id": 7,
                        "left_children": [
                            1,
                            3,
                            -1,
                            -1,
                            5,
                            7,
                            -1,
                            -1,
                            -1
                        ],
                        "loss_changes": [
                            17.53221,
                            8.586104,
                            0.0,
                            0.0,
                            1.6661453,
                            8.015132,
                            0.0,
                            0.0,
                            0.0
                        ],
                        "parents": [
                            2147483647,
                            0,
                            0,
                            1,
                            1,
                            4,
                            4,
                            5,
                            5
                        ],
                        "right_children": [
                            2,
                            4,
                            -1,
                            -1,
                            6,
                            8,
                            -1,
                            -1,
                            -1
                        ],
                        "split_conditions": [
                            -0.27976355,
                            0.14291193,
                            -0.08418338,
                            -0.06965086,
                            -0.73731303,
                            -1.042325,
                            0.13431175,
                            0.19807659,
                            -0.06857785
                        ],
                        "split_indices": [
                            6,
                            4,
                            0,
                            0,
                            0,
                            0,
                            0,
                            0,
                            0
                        ],
                        "split_type": [
                            0,
                            0,
                            0,
                            0,
                            0,
                            0,
                            0,
                            0,
                            0
                        ],
                        "sum_hessian": [
                            44.266575,
                            26.465183,
                            17.80139,
                            4.555904,
                            21.90928,
                            6.601579,
                            15.307701,
                            2.902993,
                            3.6985862
                        ],
                        "tree_param": {
                            "num_deleted": "0",
                            "num_feature": "8",
                            "num_nodes": "9",
                            "size_leaf_vector": "0"
                        }
                    },
                    {
                        "base_weights": [
                            -0.18458046,
                            0.045595437,
                            -0.67898136,
                            0.85078466,
                            -0.16060981,
                            -0.2581566,
                            1.1689073,
                            -0.0,
                            -0.6230771,
                            -0.18877178,
                            1.1089753,
                            -0.37823477,
                            0.32892963,
                            -0.0,
                            -0.7194938,
                            0.84150255,
                            -0.11245307,
                            0.40164098,
                            -0.40650213,
                            -0.1669033,
                            1.0256433
                        ],
                        "categories": [],
                        "categories_nodes": [],
                        "categories_segments": [],
                        "categories_sizes": [],
                        "default_left": [
                            1,
                            1,
                            0,
                            1,
                            1,
                            0,
                            0,
                            1,
                            0,
                            1,
                            0,
                            1,
                            1,
                            1,
                            0,
                            0,
                            0,
                            1,
                            0,
                            0,
                            0
                        ],
                        "id": 8,
                        "left_children": [
                            1,
                            3,
                            -1,
                            5,
                            7,
                            -1,
                            -1,
                            9,
                            -1,
                            11,
                            -1,
                            13,
                            15,
                            17,
                            -1,
                            -1,
                            -1,
                            19,
                            -1,
                            -1,
                            -1
                        ],
                        "loss_changes": [
                            6.034395,
                            5.915429,
                            0.0,
                            3.1911306,
                            2.221726,
                            0.0,
                            0.0,
                            4.306993,
                            0.0,
                            1.5373744,
                            0.0,
                            1.8408365,
                            1.1991165,
                            0.86819804,
                            0.0,
                            0.0,
                            0.0,
                            1.6765068,
                            0.0,
                            0.0,
                            0.0
                        ],
                        "parents": [
                            2147483647,
                            0,
                            0,
                            1,
                            1,
                            3,
                            3,
                            4,
                            4,
                            7,
                            7,
                            9,
                            9,
                            11,
                            11,
                            12,
                            12,
                            13,
                            13,
                            17,
                            17
                        ],
                        "right_children": [
                            2,
                            4,
                            -1,
                            6,
                            8,
                            -1,
                            -1,
                            10,
                            -1,
                            12,
                            -1,
                            14,
                            16,
                            18,
                            -1,
                            -1,
                            -1,
                            20,
                            -1,
                            -1,
                            -1
                        ],
                        "split_conditions": [
                            1.0183365,
                            -0.967679,
                            -0.08464483,
                            -0.96608734,
                            0.7457998,
                            -0.032182947,
                            0.14572117,
                            0.72852576,
                            -0.07767556,
                            -0.08772902,
                            0.13824978,
                            -0.50157285,
                            -0.42280757,
                            -0.6914046,
                            -0.08969529,
                            0.10490544,
                            -0.0140189,
                            -1.3219193,
                            -0.05067636,
                            -0.020806907,
                            0.12786126
                        ],
                        "split_indices": [
                            5,
                            6,
                            0,
                            1,
                            1,
                            0,
                            0,
                            6,
                            0,
                            2,
                            0,
                            6,
                            5,
                            2,
                            0,
                            0,
                            0,
                            0,
                            0,
                            0,
                            0
                        ],
                        "split_type": [
                            0,
                            0,
                            0,
                            0,
                            0,
                            0,
                            0,
                            0,
                            0,
                            0,
                            0,
                            0,
                            0,
                            0,
                            0,
                            0,
                            0,
                            0,
                            0,
                            0,
                            0
                        ],
                        "sum_hessian": [
                            49.412136,
                            32.87555,
                            16.536587,
                            7.292743,
                            25.582806,
                            1.182831,
                            6.1099124,
                            18.216526,
                            7.36628,
                            15.2174425,
                            2.999084,
                            12.051141,
                            3.1663013,
                            5.2084136,
                            6.8427277,
                            2.106003,
                            1.0602983,
                            3.0975437,
                            2.1108696,
                            1.1109256,
                            1.9866183
                        ],
                        "tree_param": {
                            "num_deleted": "0",
                            "num_feature": "8",
                            "num_nodes": "21",
                            "size_leaf_vector": "0"
                        }
                    },
                    {
                        "base_weights": [
                            0.2985158,
                            0.978767,
                            -0.48102403,
                            1.0929257,
                            -0.18140283,
                            -0.6506218,
                            0.8692212
                        ],
                        "categories": [],
                        "categories_nodes": [],
                        "categories_segments": [],
                        "categories_sizes": [],
                        "default_left": [
                            1,
                            1,
                            1,
                            0,
                            0,
                            0,
                            0
                        ],
                        "id": 9,
                        "left_children": [
                            1,
                            3,
                            5,
                            -1,
                            -1,
                            -1,
                            -1
                        ],
                        "loss_changes": [
                            16.830336,
                            2.850397,
                            3.1222055,
                            0.0,
                            0.0,
                            0.0,
                            0.0
                        ],
                        "parents": [
                            2147483647,
                            0,
                            0,
                            1,
                            1,
                            2,
                            2
                        ],
                        "right_children": [
                            2,
                            4,
                            6,
                            -1,
                            -1,
                            -1,
                            -1
                        ],
                        "split_conditions": [
                            -0.07063825,
                            4.154864,
                            1.3215178,
                            0.13624896,
                            -0.022614483,
                            -0.0811094,
                            0.108360976
                        ],
                        "split_indices": [
                            4,
                            3,
                            0,
                            0,
                            0,
                            0,
                            0
                        ],
                        "split_type": [
                            0,
                            0,
                            0,
                            0,
                            0,
                            0,
                            0
                        ],
                        "sum_hessian": [
                            31.027855,
                            16.996305,
                            14.031548,
                            15.975699,
                            1.0206064,
                            12.911783,
                            1.1197647
                        ],
                        "tree_param": {
                            "num_deleted": "0",
                            "num_feature": "8",
                            "num_nodes": "7",
                            "size_leaf_vector": "0"
                        }
                    },
                    {
                        "base_weights": [
                            0.20762548,
                            0.806497,
                            -0.6504789,
                            -0.54582554,
                            1.1112725,
                            0.6076602,
                            1.4396619,
                            1.1989715,
                            -0.5652607
                        ],
                        "categories": [],
                        "categories_nodes": [],
                        "categories_segments": [],
                        "categories_sizes": [],
                        "default_left": [
                            1,
                            1,
                            0,
                            0,
                            1,
                            1,
                            0,
                            0,
                            0
                        ],
                        "id": 10,
                        "left_children": [
                            1,
                            3,
                            -1,
                            -1,
                            5,
                            7,
                            -1,
                            -1,
                            -1
                        ],
                        "loss_changes": [
                            23.770424,
                            11.753366,
                            0.0,
                            0.0,
                            2.431656,
                            7.312441,
                            0.0,
                            0.0,
                            0.0
                        ],
                        "parents": [
                            2147483647,
                            0,
                            0,
                            1,
                            1,
                            4,
                            4,
                            5,
                            5
                        ],
                        "right_children": [
                            2,
                            4,
                            -1,
                            -1,
                            6,
                            8,
                            -1,
                            -1,
                            -1
                        ],
                        "split_conditions": [
                            -0.40961435,
                            0.022387728,
                            -0.08109159,
                            -0.068045035,
                            -0.7696384,
                            -1.3283329,
                            0.17947464,
                            0.1494691,
                            -0.07046791
                        ],
                        "split_indices": [
                            7,
                            4,
                            0,
                            0,
                            7,
                            7,
                            0,
                            0,
                            0
                        ],
                        "split_type": [
                            0,
                            0,
                            0,
                            0,
                            0,
                            0,
                            0,
                            0,
                            0
                        ],
                        "sum_hessian": [
                            45.940544,
                            27.495668,
                            18.444876,
                            4.6646776,
                            22.830992,
                            9.843221,
                            12.98777,
                            6.9034996,
                            2.9397209
                        ],
                        "tree_param": {
                            "num_deleted": "0",
                            "num_feature": "8",
                            "num_nodes": "9",
                            "size_leaf_vector": "0"
                        }
                    },
                    {
                        "base_weights": [
                            -0.03344187,
                            0.9619499,
                            -0.38063225,
                            1.1561495,
                            0.0214863,
                            0.5721945,
                            -0.60076654,
                            -0.15018857,
                            1.0321397
                        ],
                        "categories": [],
                        "categories_nodes": [],
                        "categories_segments": [],
                        "categories_sizes": [],
                        "default_left": [
                            1,
                            1,
                            1,
                            0,
                            0,
                            1,
                            0,
                            0,
                            0
                        ],
                        "id": 11,
                        "left_children": [
                            1,
                            3,
                            5,
                            -1,
                            -1,
                            7,
                            -1,
                            -1,
                            -1
                        ],
                        "loss_changes": [
                            11.158829,
                            0.73911,
                            5.3248544,
                            0.0,
                            0.0,
                            1.9716125,
                            0.0,
                            0.0,
                            0.0
                        ],
                        "parents": [
                            2147483647,
                            0,
                            0,
                            1,
                            1,
                            2,
                            2,
                            5,
                            5
                        ],
                        "right_children": [
                            2,
                            4,
                            6,
                            -1,
                            -1,
                            8,
                            -1,
                            -1,
                            -1
                        ],
                        "split_conditions": [
                            -0.09995395,
                            -0.16958334,
                            -0.5072324,
                            0.14413074,
                            0.0026785776,
                            0.9783793,
                            -0.07489423,
                            -0.018723173,
                            0.12867111
                        ],
                        "split_indices": [
                            1,
                            2,
                            2,
                            0,
                            0,
                            0,
                            0,
                            0,
                            0
                        ],
                        "split_type": [
                            0,
                            0,
                            0,
                            0,
                            0,
                            0,
                            0,
                            0,
                            0
                        ],
                        "sum_hessian": [
                            33.234074,
                            8.0932255,
                            25.140846,
                            6.136391,
                            1.9568341,
                            4.1582675,
                            20.982578,
                            1.0958368,
                            3.0624306
                        ],
                        "tree_param": {
                            "num_deleted": "0",
                            "num_feature": "8",
                            "num_nodes": "9",
                            "size_leaf_vector": "0"
                        }
                    },
                    {
                        "base_weights": [
                            0.042342227,
                            -0.19688746,
                            0.9493741,
                            1.0213412,
                            -0.68495303
                        ],
                        "categories": [],
                        "categories_nodes": [],
                        "categories_segments": [],
                        "categories_sizes": [],
                        "default_left": [
                            1,
                            1,
                            0,
                            0,
                            0
                        ],
                        "id": 12,
                        "left_children": [
                            1,
                            3,
                            -1,
                            -1,
                            -1
                        ],
                        "loss_changes": [
                            11.653643,
                            23.73482,
                            0.0,
                            0.0,
                            0.0
                        ],
                        "parents": [
                            2147483647,
                            0,
                            0,
                            1,
                            1
                        ],
                        "right_children": [
                            2,
                            4,
                            -1,
                            -1,
                            -1
                        ],
                        "split_conditions": [
                            0.76111484,
                            -0.21526882,
                            0.11835319,
                            0.12732492,
                            -0.08538929
                        ],
                        "split_indices": [
                            7,
                            4,
                            0,
                            0,
                            0
                        ],
                        "split_type": [
                            0,
                            0,
                            0,
                            0,
                            0
                        ],
                        "sum_hessian": [
                            51.38955,
                            40.147194,
                            11.242354,
                            11.092254,
                            29.05494
                        ],
                        "tree_param": {
                            "num_deleted": "0",
                            "num_feature": "8",
                            "num_nodes": "5",
                            "size_leaf_vector": "0"
                        }
                    },
                    {
                        "base_weights": [
                            -0.0018830078,
                            -0.62606037,
                            0.60545677,
                            1.0199193,
                            0.017193023,
                            -0.5955534,
                            1.3244326
                        ],
                        "categories": [],
                        "categories_nodes": [],
                        "categories_segments": [],
                        "categories_sizes": [],
                        "default_left": [
                            1,
                            0,
                            1,
                            0,
                            1,
                            0,
                            0
                        ],
                        "id": 13,
                        "left_children": [
                            1,
                            -1,
                            3,
                            -1,
                            5,
                            -1,
                            -1
                        ],
                        "loss_changes": [
                            15.696827,
                            0.0,
                            4.3264194,
                            0.0,
                            7.8394766,
                            0.0,
                            0.0
                        ],
                        "parents": [
                            2147483647,
                            0,
                            0,
                            2,
                            2,
                            4,
                            4
                        ],
                        "right_children": [
                            2,
                            -1,
                            4,
                            -1,
                            6,
                            -1,
                            -1
                        ],
                        "split_conditions": [
                            0.32801783,
                            -0.07804746,
                            0.60314256,
                            0.12714766,
                            0.3099525,
                            -0.07424433,
                            0.16510965
                        ],
                        "split_indices": [
                            1,
                            0,
                            1,
                            0,
                            4,
                            0,
                            0
                        ],
                        "split_type": [
                            0,
                            0,
                            0,
                            0,
                            0,
                            0,
                            0
                        ],
                        "sum_hessian": [
                            41.251606,
                            20.85902,
                            20.392584,
                            11.303721,
                            9.088863,
                            5.879544,
                            3.2093194
                        ],
                        "tree_param": {
                            "num_deleted": "0",
                            "num_feature": "8",
                            "num_nodes": "7",
                            "size_leaf_vector": "0"
                        }
                    },
                    {
                        "base_weights": [
                            -0.07059188,
                            0.30412838,
                            -0.66439855,
                            0.77495366,
                            -0.08755965,
                            -0.12646972,
                            1.0295235,
                            0.4731477,
                            -0.6201929
                        ],
                        "categories": [],
                        "categories_nodes": [],
                        "categories_segments": [],
                        "categories_sizes": [],
                        "default_left": [
                            1,
                            1,
                            0,
                            1,
                            1,
                            0,
                            0,
                            0,
                            0
                        ],
                        "id": 14,
                        "left_children": [
                            1,
                            3,
                            -1,
                            5,
                            7,
                            -1,
                            -1,
                            -1,
                            -1
                        ],
                        "loss_changes": [
                            5.786438,
                            3.1453753,
                            0.0,
                            2.280559,
                            2.2979584,
                            0.0,
                            0.0,
                            0.0,
                            0.0
                        ],
                        "parents": [
                            2147483647,
                            0,
                            0,
                            1,
                            1,
                            3,
                            3,
                            4,
                            4
                        ],
                        "right_children": [
                            2,
                            4,
                            -1,
                            6,
                            8,
                            -1,
                            -1,
                            -1,
                            -1
                        ],
                        "split_conditions": [
                            -0.069926515,
                            -0.13888796,
                            -0.082826875,
                            -1.3981723,
                            0.08876108,
                            -0.015766276,
                            0.12834497,
                            0.058984693,
                            -0.077316
                        ],
                        "split_indices": [
                            7,
                            2,
                            0,
                            0,
                            0,
                            0,
                            0,
                            0,
                            0
                        ],
                        "split_type": [
                            0,
                            0,
                            0,
                            0,
                            0,
                            0,
                            0,
                            0,
                            0
                        ],
                        "sum_hessian": [
                            24.860826,
                            14.604011,
                            10.256817,
                            7.342166,
                            7.2618446,
                            1.0737045,
                            6.268461,
                            2.9596083,
                            4.302236
                        ],
                        "tree_param": {
                            "num_deleted": "0",
                            "num_feature": "8",
                            "num_nodes": "9",
                            "size_leaf_vector": "0"
                        }
                    },
                    {
                        "base_weights": [
                            -0.12363774,
                            0.63914067,
                            -0.5160994,
                            0.975105,
                            0.42058992,
                            1.0427669,
                            -0.60911995,
                            0.86678815,
                            -0.42507884,
                            0.32766515,
                            -0.6853453
                        ],
                        "categories": [],
                        "categories_nodes": [],
                        "categories_segments": [],
                        "categories_sizes": [],
                        "default_left": [
                            1,
                            1,
                            1,
                            0,
                            1,
                            0,
                            1,
                            0,
                            0,
                            0,
                            0
                        ],
                        "id": 15,
                        "left_children": [
                            1,
                            3,
                            5,
                            -1,
                            7,
                            -1,
                            9,
                            -1,
                            -1,
                            -1,
                            -1
                        ],
                        "loss_changes": [
                            11.406694,
                            0.005003929,
                            3.514163,
                            0.0,
                            3.6304336,
                            0.0,
                            2.0144396,
                            0.0,
                            0.0,
                            0.0,
                            0.0
                        ],
                        "parents": [
                            2147483647,
                            0,
                            0,
                            1,
                            1,
                            2,
                            2,
                            4,
                            4,
                            6,
                            6
                        ],
                        "right_children": [
                            2,
                            4,
                            6,
                            -1,
                            8,
                            -1,
                            10,
                            -1,
                            -1,
                            -1,
                            -1
                        ],
                        "split_conditions": [
                            -0.5598544,
                            -0.6664277,
                            -0.87437904,
                            0.12156092,
                            -0.03646937,
                            0.12999596,
                            -0.27474186,
                            0.10805766,
                            -0.052992217,
                            0.04084819,
                            -0.085438184
                        ],
                        "split_indices": [
                            5,
                            7,
                            1,
                            0,
                            4,
                            0,
                            4,
                            0,
                            0,
                            0,
                            0
                        ],
                        "split_type": [
                            0,
                            0,
                            0,
                            0,
                            0,
                            0,
                            0,
                            0,
                            0,
                            0,
                            0
                        ],
                        "sum_hessian": [
                            38.237846,
                            12.427176,
                            25.81067,
                            3.6692984,
                            8.757877,
                            1.033955,
                            24.776716,
                            6.22403,
                            2.5338478,
                            1.2219119,
                            23.554804
                        ],
                        "tree_param": {
                            "num_deleted": "0",
                            "num_feature": "8",
                            "num_nodes": "11",
                            "size_leaf_vector": "0"
                        }
                    },
                    {
                        "base_weights": [
                            0.17621925,
                            1.3000001,
                            -0.09679936,
                            0.5535669,
                            -0.6173823,
                            0.8658013,
                            -0.4329583,
                            0.47142252,
                            1.3026345,
                            -0.39731532,
                            1.1320355
                        ],
                        "categories": [],
                        "categories_nodes": [],
                        "categories_segments": [],
                        "categories_sizes": [],
                        "default_left": [
                            1,
                            0,
                            1,
                            1,
                            0,
                            1,
                            0,
                            1,
                            0,
                            0,
                            0
                        ],
                        "id": 16,
                        "left_children": [
                            1,
                            -1,
                            3,
                            5,
                            -1,
                            7,
                            -1,
                            9,
                            -1,
                            -1,
                            -1
                        ],
                        "loss_changes": [
                            10.53306,
                            0.0,
                            8.591791,
                            3.5907695,
                            0.0,
                            0.32206535,
                            0.0,
                            3.5901725,
                            0.0,
                            0.0,
                            0.0
                        ],
                        "parents": [
                            2147483647,
                            0,
                            0,
                            2,
                            2,
                            3,
                            3,
                            5,
                            5,
                            7,
                            7
                        ],
                        "right_children": [
                            2,
                            -1,
                            4,
                            6,
                            -1,
                            8,
                            -1,
                            10,
                            -1,
                            -1,
                            -1
                        ],
                        "split_conditions": [
                            -0.8487728,
                            0.16206378,
                            -0.7876375,
                            0.5971144,
                            -0.076965615,
                            0.014291368,
                            -0.053974506,
                            0.10146992,
                            0.1623922,
                            -0.04953109,
                            0.14112458
                        ],
                        "split_indices": [
                            3,
                            0,
                            7,
                            0,
                            0,
                            3,
                            0,
                            0,
                            0,
                            0,
                            0
                        ],
                        "split_type": [
                            0,
                            0,
                            0,
                            0,
                            0,
                            0,
                            0,
                            0,
                            0,
                            0,
                            0
                        ],
                        "sum_hessian": [
                            31.752754,
                            6.6170883,
                            25.135666,
                            10.630331,
                            14.505334,
                            8.569719,
                            2.060612,
                            5.334357,
                            3.2353628,
                            1.8989792,
                            3.4353776
                        ],
                        "tree_param": {
                            "num_deleted": "0",
                            "num_feature": "8",
                            "num_nodes": "11",
                            "size_leaf_vector": "0"
                        }
                    },
                    {
                        "base_weights": [
                            -0.09459546,
                            -0.21986018,
                            1.0709336,
                            -0.0,
                            -0.765274,
                            0.51426506,
                            -0.46158373,
                            0.98949814,
                            -0.15240484,
                            0.48401564,
                            -0.78964657,
                            -0.53599286,
                            0.3929221
                        ],
                        "categories": [],
                        "categories_nodes": [],
                        "categories_segments": [],
                        "categories_sizes": [],
                        "default_left": [
                            1,
                            1,
                            0,
                            1,
                            0,
                            1,
                            1,
                            0,
                            1,
                            0,
                            0,
                            0,
                            0
                        ],
                        "id": 17,
                        "left_children": [
                            1,
                            3,
                            -1,
                            5,
                            -1,
                            7,
                            9,
                            -1,
                            11,
                            -1,
                            -1,
                            -1,
                            -1
                        ],
                        "loss_changes": [
                            4.886884,
                            4.2238464,
                            0.0,
                            5.736377,
                            0.0,
                            4.2174435,
                            4.101399,
                            0.0,
                            1.008306,
                            0.0,
                            0.0,
                            0.0,
                            0.0
                        ],
                        "parents": [
                            2147483647,
                            0,
                            0,
                            1,
                            1,
                            3,
                            3,
                            5,
                            5,
                            6,
                            6,
                            8,
                            8
                        ],
                        "right_children": [
                            2,
                            4,
                            -1,
                            6,
                            -1,
                            8,
                            10,
                            -1,
                            12,
                            -1,
                            -1,
                            -1,
                            -1
                        ],
                        "split_conditions": [
                            1.8798332,
                            0.71149385,
                            0.13350734,
                            -0.34192103,
                            -0.09540246,
                            -0.25437737,
                            -0.17257704,
                            0.12335523,
                            0.08346252,
                            0.06033954,
                            -0.09844085,
                            -0.06681925,
                            0.048983414
                        ],
                        "split_indices": [
                            6,
                            0,
                            0,
                            5,
                            0,
                            0,
                            3,
                            0,
                            1,
                            0,
                            0,
                            0,
                            0
                        ],
                        "split_type": [
                            0,
                            0,
                            0,
                            0,
                            0,
                            0,
                            0,
                            0,
                            0,
                            0,
                            0,
                            0,
                            0
                        ],
                        "sum_hessian": [
                            37.019474,
                            33.963577,
                            3.0558975,
                            24.003317,
                            9.9602585,
                            11.543147,
                            12.46017,
                            7.278741,
                            4.264406,
                            2.7029748,
                            9.757195,
                            3.1883316,
                            1.0760748
                        ],
                        "tree_param": {
                            "num_deleted": "0",
                            "num_feature": "8",
                            "num_nodes": "13",
                            "size_leaf_vector": "0"
                        }
                    },
                    {
                        "base_weights": [
                            -0.23280284,
                            -0.96920073,
                            -0.0627803,
                            0.8594249,
                            -0.6421419
                        ],
                        "categories": [],
                        "categories_nodes": [],
                        "categories_segments": [],
                        "categories_sizes": [],
                        "default_left": [
                            1,
                            0,
                            1,
                            0,
                            0
                        ],
                        "id": 18,
                        "left_children": [
                            1,
                            -1,
                            3,
                            -1,
                            -1
                        ],
                        "loss_changes": [
                            2.8522859,
                            0.0,
                            12.479797,
                            0.0,
                            0.0
                        ],
                        "parents": [
                            2147483647,
                            0,
                            0,
                            2,
                            2
                        ],
                        "right_children": [
                            2,
                            -1,
                            4,
                            -1,
                            -1
                        ],
                        "split_conditions": [
                            -0.81324023,
                            -0.120824866,
                            -0.09577733,
                            0.10713972,
                            -0.08005226
                        ],
                        "split_indices": [
                            1,
                            0,
                            4,
                            0,
                            0
                        ],
                        "split_type": [
                            0,
                            0,
                            0,
                            0,
                            0
                        ],
                        "sum_hessian": [
                            27.989147,
                            4.4956245,
                            23.493523,
                            8.630127,
                            14.863395
                        ],
                        "tree_param": {
                            "num_deleted": "0",
                            "num_feature": "8",
                            "num_nodes": "5",
                            "size_leaf_vector": "0"
                        }
                    },
                    {
                        "base_weights": [
                            -0.20271043,
                            0.6037727,
                            -0.6068247,
                            -0.3467033,
                            0.9382745
                        ],
                        "categories": [],
                        "categories_nodes": [],
                        "categories_segments": [],
                        "categories_sizes": [],
                        "default_left": [
                            1,
                            1,
                            0,
                            0,
                            0
                        ],
                        "id": 19,
                        "left_children": [
                            1,
                            3,
                            -1,
                            -1,
                            -1
                        ],
                        "loss_changes": [
                            9.450603,
                            3.3080463,
                            0.0,
                            0.0,
                            0.0
                        ],
                        "parents": [
                            2147483647,
                            0,
                            0,
                            1,
                            1
                        ],
                        "right_children": [
                            2,
                            4,
                            -1,
                            -1,
                            -1
                        ],
                        "split_conditions": [
                            -1.126777,
                            0.9354499,
                            -0.07564946,
                            -0.04322157,
                            0.116969466
                        ],
                        "split_indices": [
                            3,
                            2,
                            0,
                            0,
                            0
                        ],
                        "split_type": [
                            0,
                            0,
                            0,
                            0,
                            0
                        ],
                        "sum_hessian": [
                            28.863314,
                            9.099968,
                            19.763346,
                            1.8736429,
                            7.2263255
                        ],
                        "tree_param": {
                            "num_deleted": "0",
                            "num_feature": "8",
                            "num_nodes": "5",
                            "size_leaf_vector": "0"
                        }
                    },
                    {
                        "base_weights": [
                            -0.0015993293,
                            -0.07453797,
                            1.0183845,
                            -0.68393993,
                            0.2525969,
                            1.0636501,
                            -0.6081608
                        ],
                        "categories": [],
                        "categories_nodes": [],
                        "categories_segments": [],
                        "categories_sizes": [],
                        "default_left": [
                            1,
                            1,
                            0,
                            0,
                            1,
                            0,
                            0
                        ],
                        "id": 20,
                        "left_children": [
                            1,
                            3,
                            -1,
                            -1,
                            5,
                            -1,
                            -1
                        ],
                        "loss_changes": [
                            2.277754,
                            7.596906,
                            0.0,
                            0.0,
                            16.547733,
                            0.0,
                            0.0
                        ],
                        "parents": [
                            2147483647,
                            0,
                            0,
                            1,
                            1,
                            4,
                            4
                        ],
                        "right_children": [
                            2,
                            4,
                            -1,
                            -1,
                            6,
                            -1,
                            -1
                        ],
                        "split_conditions": [
                            1.1635818,
                            -0.14771314,
                            0.12695633,
                            -0.08526299,
                            0.38915664,
                            0.13259935,
                            -0.07581603
                        ],
                        "split_indices": [
                            1,
                            4,
                            0,
                            0,
                            1,
                            0,
                            0
                        ],
                        "split_type": [
                            0,
                            0,
                            0,
                            0,
                            0,
                            0,
                            0
                        ],
                        "sum_hessian": [
                            38.558674,
                            36.619167,
                            1.9395065,
                            13.446886,
                            23.172281,
                            12.303489,
                            10.8687935
                        ],
                        "tree_param": {
                            "num_deleted": "0",
                            "num_feature": "8",
                            "num_nodes": "7",
                            "size_leaf_vector": "0"
                        }
                    },
                    {
                        "base_weights": [
                            -0.0,
                            0.81509244,
                            -0.48674655,
                            -0.61579204,
                            0.18744718
                        ],
                        "categories": [],
                        "categories_nodes": [],
                        "categories_segments": [],
                        "categories_sizes": [],
                        "default_left": [
                            1,
                            0,
                            1,
                            0,
                            0
                        ],
                        "id": 21,
                        "left_children": [
                            1,
                            -1,
                            3,
                            -1,
                            -1
                        ],
                        "loss_changes": [
                            10.701222,
                            0.0,
                            1.7969575,
                            0.0,
                            0.0
                        ],
                        "parents": [
                            2147483647,
                            0,
                            0,
                            2,
                            2
                        ],
                        "right_children": [
                            2,
                            -1,
                            4,
                            -1,
                            -1
                        ],
                        "split_conditions": [
                            -0.20865442,
                            0.101613045,
                            1.25529,
                            -0.07676737,
                            0.023367997
                        ],
                        "split_indices": [
                            4,
                            0,
                            1,
                            0,
                            0
                        ],
                        "split_type": [
                            0,
                            0,
                            0,
                            0,
                            0
                        ],
                        "sum_hessian": [
                            27.210293,
                            9.825878,
                            17.384415,
                            15.387218,
                            1.9971952
                        ],
                        "tree_param": {
                            "num_deleted": "0",
                            "num_feature": "8",
                            "num_nodes": "5",
                            "size_leaf_vector": "0"
                        }
                    },
                    {
                        "base_weights": [
                            -0.06647671,
                            -0.62190396,
                            0.7529004,
